[
    {
        "type": "LSTMLayer",
        "parameters": {
            "num_timestep": 4,
            "input_size": 5,
            "num_cell": 64
        },
        "weights": {
            "U_f": [
                [
                    2.472182538186818e-05,
                    -0.07937242120534055,
                    0.07273403170797073,
                    0.09055178847187276,
                    0.04139309809412646
                ],
                [
                    -0.01998503018392286,
                    -0.05405061589832086,
                    -0.005720625840760208,
                    0.08123513279532138,
                    0.095123763692675
                ],
                [
                    0.058599635555450585,
                    -0.045308826621299494,
                    -0.03659296830441166,
                    -0.019596433137722857,
                    -0.0725026902511728
                ],
                [
                    -0.060964016115986924,
                    0.05119697881166747,
                    0.03280946975377035,
                    0.08562647222699869,
                    0.03920034434542661
                ],
                [
                    -0.016829395365116562,
                    -0.01796683772716734,
                    0.07471995085547832,
                    0.028622762348408215,
                    -0.07046675460809107
                ],
                [
                    -0.09254364599341852,
                    -0.02243328260301991,
                    0.05875528273285105,
                    0.040623603131641865,
                    0.021635212550484263
                ],
                [
                    -0.09245997112274894,
                    0.0057165103026754595,
                    0.044160577243776804,
                    -0.07513392758676823,
                    0.07170022337883981
                ],
                [
                    -0.0063003064744814544,
                    0.03563593312990272,
                    0.027530670088365097,
                    0.014795085915391804,
                    -0.056332530832932375
                ],
                [
                    0.011486990864427905,
                    -0.01976597882563287,
                    0.09783688049306594,
                    -0.027014484996101797,
                    0.023869533341399032
                ],
                [
                    0.056919851090795004,
                    0.07274028362785223,
                    0.04007839775828686,
                    -0.0009042033126478223,
                    0.02951266498786731
                ],
                [
                    -0.06443618987640001,
                    0.0949901392664009,
                    0.07439141767383138,
                    -0.0659624714305168,
                    -0.014476194903096507
                ],
                [
                    0.08660603872699349,
                    0.018404025028141004,
                    -0.062374787225182575,
                    0.04284802457797037,
                    -0.06318437950630655
                ],
                [
                    -0.07226921183741246,
                    -0.03268509632625845,
                    0.008729186522408883,
                    0.0636765447648359,
                    -0.003283185781031195
                ],
                [
                    -0.09804473918518482,
                    -0.08919876593928418,
                    -0.07645753067722126,
                    0.05376783564055137,
                    0.0157764751972445
                ],
                [
                    -0.06747055499717551,
                    -0.05338892064909302,
                    -0.03892069073394247,
                    -0.0843642054734405,
                    0.030670805930924264
                ],
                [
                    0.09574820028650877,
                    -0.008808672513969485,
                    -0.02508918615805853,
                    -0.09958719258777565,
                    0.06533802937731992
                ],
                [
                    0.08590694405805753,
                    0.09795945558521633,
                    -0.06974124358652177,
                    0.06430019094969652,
                    0.07566740237700956
                ],
                [
                    0.03528532194535596,
                    -0.03798565686860522,
                    0.020942841382214163,
                    0.09312003385635681,
                    -0.0928459317872175
                ],
                [
                    0.05032555746604361,
                    -0.06449877576899858,
                    -0.07841379107029821,
                    0.0050595003634406055,
                    -0.06428272457272476
                ],
                [
                    0.09554172565423609,
                    0.07978447221504069,
                    0.028357732915465728,
                    -0.04731476322115147,
                    0.048900821504339345
                ],
                [
                    -0.010766064169885438,
                    0.0638770290158693,
                    -0.003141996332911612,
                    -0.05368625393411972,
                    0.015993344954720667
                ],
                [
                    -0.018209591638833067,
                    -0.05058310211091521,
                    -0.09782554603627375,
                    -0.014792884395647011,
                    0.09985662111109568
                ],
                [
                    0.08530747061647295,
                    0.07999743013651442,
                    0.017053784390733396,
                    0.006873914071259058,
                    0.04257892110607489
                ],
                [
                    0.045388523154390015,
                    0.056885981683312936,
                    -0.019131306832530993,
                    -4.721673745613497e-05,
                    0.027591468548469746
                ],
                [
                    -0.04269767813659469,
                    0.05928556686429398,
                    -0.03646234905806767,
                    -0.0828342693765271,
                    0.012124492222754892
                ],
                [
                    0.04028064672738654,
                    0.051613408489986946,
                    0.03587814124169508,
                    -0.011979241152174037,
                    -0.056194814089613
                ],
                [
                    -0.07877349101263825,
                    0.012927062319510864,
                    0.01817250656257783,
                    0.03229828488429389,
                    0.08405627307588825
                ],
                [
                    0.06786139513882138,
                    0.09737406453922176,
                    -0.0941022112036421,
                    -0.0071516169102335825,
                    -0.015714270079579352
                ],
                [
                    -0.06192066685944567,
                    0.05669731825612594,
                    0.07078514120497259,
                    0.0690202220742303,
                    -0.05880038910412238
                ],
                [
                    0.03500069678869435,
                    0.07940642561325702,
                    0.009089305481887156,
                    0.0680334291129124,
                    -0.03317887212101272
                ],
                [
                    -0.03860455032102464,
                    -0.09492188149237935,
                    -0.06530259560618046,
                    -0.06745275401283422,
                    0.08715498363143762
                ],
                [
                    -0.025927512216125128,
                    -0.02141171347706239,
                    -0.010959007189416538,
                    -0.059405539037932734,
                    0.0268973397817476
                ],
                [
                    -0.012806446065611833,
                    -0.03402226085743605,
                    0.0929687940823013,
                    -0.008758435633623152,
                    0.03812912657545651
                ],
                [
                    -0.032341445915505716,
                    -0.08445404809888933,
                    -0.09859708256114515,
                    0.06887793984552425,
                    -0.06875573289540242
                ],
                [
                    -0.055772965071628766,
                    0.04697946634742001,
                    0.05700496200536096,
                    0.05978746553006549,
                    0.0870702350035798
                ],
                [
                    -0.01139939727859194,
                    -0.031185481058964792,
                    0.002060740486585644,
                    0.03463986564862727,
                    0.08436487446533823
                ],
                [
                    -0.09072423663047578,
                    -0.06210031888243675,
                    0.020671467939786716,
                    0.03475577023677847,
                    -0.013578133866853914
                ],
                [
                    -0.063457608923965,
                    0.06081004830278405,
                    -0.054941133321407425,
                    -0.06976697727247316,
                    0.00895971199262995
                ],
                [
                    0.03342568512312627,
                    -0.08077156110841975,
                    -0.09750814365465106,
                    -0.06819499027805785,
                    0.08137509822968032
                ],
                [
                    0.03349920128347546,
                    0.05957060611041805,
                    -0.05051685487626348,
                    0.0020467893197101184,
                    0.05296683643859712
                ],
                [
                    -0.02601765464062149,
                    0.009623941356695753,
                    -0.00043317237578268666,
                    0.026281006421380784,
                    -0.02919140996263945
                ],
                [
                    0.04972321214409523,
                    0.08791463951926148,
                    0.09504715457598623,
                    0.027404398001413612,
                    0.05853912513483257
                ],
                [
                    0.07024525791007881,
                    -0.020559352801155152,
                    0.0018021673801897455,
                    -0.04148303729115162,
                    -0.05325169234306444
                ],
                [
                    -0.09809284175158595,
                    0.08177483851471182,
                    -0.07958069303960003,
                    0.03545999654084329,
                    0.043952174520242096
                ],
                [
                    -0.00885830637497731,
                    -0.0008553293590720879,
                    0.0589119197142938,
                    0.07239825562741407,
                    0.0697978692573281
                ],
                [
                    0.03276688712298388,
                    -0.0015823742991722513,
                    0.03691636605956579,
                    -0.017903597035087062,
                    0.07288295168702418
                ],
                [
                    0.01914982948926558,
                    0.0216270764601227,
                    0.0037244338724033103,
                    -0.0615390043510399,
                    -0.05463186425840427
                ],
                [
                    0.04961762072803327,
                    0.06307776621425949,
                    -0.045971190987166094,
                    0.07382909180139219,
                    0.09847949064971356
                ],
                [
                    0.03484113067866514,
                    -0.03532962068828487,
                    -0.07355926067469927,
                    0.052982186028275736,
                    -0.03921958402433432
                ],
                [
                    -0.061940450473002964,
                    0.0758033823755298,
                    0.03551370715278392,
                    -0.013517235767979696,
                    0.01045665257253643
                ],
                [
                    -0.0664057564292965,
                    -0.07610567321334345,
                    -0.04419170876702166,
                    0.08717243561263073,
                    0.0423145310129415
                ],
                [
                    -0.017227034818284827,
                    0.09165248032842994,
                    -0.08825329516405796,
                    -0.07558498167671937,
                    -0.017222419498814246
                ],
                [
                    -0.07008933764866021,
                    0.09547719236655294,
                    0.08251685172375652,
                    -0.029909264186143814,
                    0.07747338747044984
                ],
                [
                    0.09601240818205375,
                    -0.02332165661331731,
                    0.09176019062214918,
                    0.033085900125649936,
                    0.045978676128854895
                ],
                [
                    -0.07533854954964064,
                    0.06179126744209229,
                    -0.08723918883986202,
                    -0.028410230741783796,
                    -0.0073974733778160665
                ],
                [
                    -0.05363710304144818,
                    -0.0688316162679633,
                    0.057335957980064925,
                    0.013981379162179187,
                    -0.08958328286639172
                ],
                [
                    0.0003685962958565492,
                    0.098223586341318,
                    0.038955770565863815,
                    0.006001830602415792,
                    0.04373128084653286
                ],
                [
                    -0.04329439474294792,
                    0.06284122009217477,
                    -0.0001590703008122807,
                    0.09256571826935028,
                    0.05643231305069574
                ],
                [
                    -0.04550381242515516,
                    -0.004451411321733478,
                    -0.06075770212392939,
                    0.09250712887246602,
                    -0.02115388205018385
                ],
                [
                    0.0005787095307336898,
                    0.0899492077840328,
                    0.0271645162369766,
                    0.025180973700088184,
                    -0.03837289237913149
                ],
                [
                    0.0984080353003828,
                    0.09086494277244868,
                    -0.0526821467922191,
                    0.029162726831359388,
                    0.08538208323706116
                ],
                [
                    0.037402713561769545,
                    -0.05576051183077138,
                    0.008833135378095292,
                    -0.05393060685665368,
                    0.020330133433451095
                ],
                [
                    0.02589290177920378,
                    0.03573474912932291,
                    0.07814491665043849,
                    0.04555598619248074,
                    0.002678013057055728
                ],
                [
                    -0.026693211519015714,
                    0.019139378698173018,
                    -0.07931641865924136,
                    -0.013284935787773233,
                    0.05668783704016381
                ]
            ],
            "U_i": [
                [
                    -0.053556123654250755,
                    0.02062807712764927,
                    -0.03755701120805675,
                    -0.09361241404849299,
                    -0.08561093586420084
                ],
                [
                    0.08156796407188319,
                    -0.020275722183939516,
                    -0.051924112163394924,
                    -0.06422321538473137,
                    -0.09777777435249334
                ],
                [
                    0.0301544419568055,
                    0.05297427632478207,
                    0.024674007264336086,
                    -0.01490608508659881,
                    0.0823013355314689
                ],
                [
                    0.039622762756099064,
                    -0.05719841039006231,
                    0.098876406469946,
                    -0.019965203560793857,
                    -0.007120585049017559
                ],
                [
                    0.07466114788659897,
                    0.05633187591387445,
                    -0.07967274781599648,
                    -0.04906178151980021,
                    -0.0739430242456351
                ],
                [
                    0.03053037031505055,
                    0.06431806215075708,
                    0.09473512223189458,
                    -0.0689936149205002,
                    0.046476093542951395
                ],
                [
                    -0.04375174187925961,
                    -0.08071092399598408,
                    -0.019137944219839522,
                    0.08298621880001816,
                    0.055768137031947496
                ],
                [
                    -0.06781883815595383,
                    -0.0022224821215545364,
                    -0.04453418913042864,
                    -0.046647664532484395,
                    0.0010112359378681823
                ],
                [
                    -0.04136395973840515,
                    -0.01720336190061884,
                    0.02030260214488271,
                    -0.03704627749194078,
                    -0.03379734668830725
                ],
                [
                    0.03835107045258557,
                    -0.0019166146779335813,
                    0.018081011915910317,
                    0.07841847579461232,
                    0.0709761180067009
                ],
                [
                    -0.015150926142531308,
                    0.02839338884314795,
                    0.026155515639256312,
                    -0.07874935709018388,
                    -0.09005017821048944
                ],
                [
                    0.09119507318700391,
                    0.02730747815645096,
                    -0.0705071875353069,
                    -0.08171362201386274,
                    0.08786382216826294
                ],
                [
                    0.08664653369145599,
                    -0.034300627629826955,
                    -0.06721424261944652,
                    0.07376215593744846,
                    0.04096431644302337
                ],
                [
                    0.05015693026633439,
                    0.04997841188381742,
                    0.09438814103778784,
                    -0.07973680491814202,
                    -0.05512551876842851
                ],
                [
                    -0.09389884652404341,
                    0.06840239898638312,
                    0.06466628498606997,
                    -0.07903201520188959,
                    0.003707590848944942
                ],
                [
                    -0.0028572100174199203,
                    0.08615538933472033,
                    0.09194476169550965,
                    -0.0009598747848972967,
                    -0.025494156096585698
                ],
                [
                    -0.08249600019688019,
                    0.004299918610332121,
                    -0.018746933418259126,
                    0.08997748984517684,
                    -0.09509492850142343
                ],
                [
                    -0.07976312916422293,
                    0.06991804926995027,
                    -0.0991881387903266,
                    -0.07557002700922022,
                    0.022938733959447146
                ],
                [
                    0.061334971616796775,
                    -0.021867748562320412,
                    0.07581823385209759,
                    0.00553570213895358,
                    -0.07616242387213311
                ],
                [
                    -0.05509542357561808,
                    0.01893290284330127,
                    0.007819665967220547,
                    0.06412498595524456,
                    0.0911020904149442
                ],
                [
                    -0.09420188221621711,
                    -0.09943948839322488,
                    0.06149711588521933,
                    -0.03128708072312205,
                    -0.09961357397871883
                ],
                [
                    0.05187579586795173,
                    0.04835080736720443,
                    0.09754778949003816,
                    -0.025113281448572434,
                    0.007386697350120342
                ],
                [
                    0.05768257936822412,
                    -0.06856173219141921,
                    0.0009974452146163549,
                    0.044698390715494356,
                    0.09592203791434889
                ],
                [
                    -0.093446381179104,
                    0.015546543491084419,
                    0.05804455770920776,
                    0.01242689808716102,
                    0.05355146841417305
                ],
                [
                    -0.05135066913017281,
                    -0.049840193116953646,
                    0.06049261906171377,
                    -0.06241582994862003,
                    -0.09290710638207496
                ],
                [
                    -0.04843220245323861,
                    -0.0007786982427753664,
                    -0.0790205576834475,
                    -0.03815509750598796,
                    -0.045423186287436426
                ],
                [
                    -0.07930861697440882,
                    0.086670789625654,
                    0.053383789017523275,
                    0.09635963186463531,
                    0.02881095185262015
                ],
                [
                    0.08187151397515045,
                    -0.06976901295371939,
                    -0.08150057058359493,
                    -0.0692209337882329,
                    0.046337578143515225
                ],
                [
                    -0.08195428500333404,
                    -0.07423263416478876,
                    0.09180500109847299,
                    -0.09642954587374396,
                    0.09419938639828287
                ],
                [
                    -0.01931485083237652,
                    -0.04936841309812628,
                    -0.08235548649629365,
                    0.05552620839205263,
                    -0.06842465148162635
                ],
                [
                    -0.023523328602504636,
                    -0.028560393137209508,
                    -0.0059485001698601275,
                    0.086309038049213,
                    -0.08653056921593326
                ],
                [
                    0.030465891663078892,
                    0.08052608967034158,
                    -0.017203367050196962,
                    -0.09827744212665497,
                    0.0527078713667589
                ],
                [
                    -0.03284936986511078,
                    -0.03608714896966012,
                    0.018845286526050244,
                    0.08967577642335721,
                    -0.044874930979814834
                ],
                [
                    0.09394778210466055,
                    -0.04460838970600163,
                    0.03418999229176787,
                    -0.06761452158339556,
                    -0.09269078714658036
                ],
                [
                    0.06871052899952361,
                    0.014450035353143443,
                    0.03287147919027178,
                    -0.009424570303084212,
                    0.06343464772562049
                ],
                [
                    0.030146256367190705,
                    -0.050920840124296984,
                    -0.0672825843536341,
                    0.0804927583487019,
                    -0.04578698942902335
                ],
                [
                    -0.035583216350680826,
                    0.07503489675100608,
                    -0.03838717723842662,
                    0.03325297068380411,
                    -0.03442527746050457
                ],
                [
                    -0.05563920556520521,
                    0.05806107456959302,
                    -0.011904330499292093,
                    -0.020577980391929887,
                    -0.005802628225925899
                ],
                [
                    0.02196413340861103,
                    0.03895008560162812,
                    -0.06287116849179579,
                    -0.018364517237594847,
                    -0.09803099981461856
                ],
                [
                    -0.08224940181239643,
                    -0.00653830004576681,
                    -0.028176131576909815,
                    0.05586236119970567,
                    -0.014448621860314327
                ],
                [
                    -0.08131373878590112,
                    0.05482321816422078,
                    0.09294551715460504,
                    -0.0846554567585922,
                    0.031466411770517434
                ],
                [
                    -0.011181477646259009,
                    0.021922334143423372,
                    0.04871334334323155,
                    0.0018005062797176842,
                    -0.035800577282667854
                ],
                [
                    -0.07443062258620976,
                    0.09201821432113973,
                    -0.004704825738092633,
                    0.04980480289639198,
                    0.030316709161386204
                ],
                [
                    0.028053584087402418,
                    0.03469520118210758,
                    -0.09148363060268253,
                    -0.03635822427415443,
                    -0.0013231579374978876
                ],
                [
                    0.07610473025210159,
                    -0.08770496302264004,
                    -0.04233879944884167,
                    -0.0002912827786273331,
                    0.09586463258198803
                ],
                [
                    -0.06933659105616911,
                    -0.038464410855924294,
                    0.07751308693944417,
                    -0.09484647014303159,
                    0.05635078467819952
                ],
                [
                    0.01088306879993397,
                    -0.025998847897123437,
                    -0.05306614270393411,
                    0.023356122602766805,
                    -0.008350077398008905
                ],
                [
                    0.0006922892546473936,
                    -0.057685791246606624,
                    -0.081520016101641,
                    -0.029060624323760775,
                    0.03823693091303289
                ],
                [
                    -0.07969630956172905,
                    -0.009040368551837276,
                    -0.0946023943333707,
                    -0.09726664443572067,
                    0.052557940994228794
                ],
                [
                    0.09814459583471298,
                    0.010042331890532986,
                    0.05617249616328795,
                    0.08514156225276621,
                    -0.028934648496435702
                ],
                [
                    0.06879322316838843,
                    0.05568853002991312,
                    0.0808616136482146,
                    -0.08190347846205037,
                    -0.015610301566249696
                ],
                [
                    -0.08882707668668717,
                    -0.042404778963083395,
                    -0.07721996462824238,
                    0.046407704277757825,
                    -0.00977890368719525
                ],
                [
                    0.00582287391409615,
                    -0.049704563964111825,
                    -0.039826523818342285,
                    -0.052911021426219555,
                    0.09058354058932919
                ],
                [
                    -0.07712030961921357,
                    -0.054894298286700165,
                    0.06323635717926356,
                    -0.004328380735615123,
                    0.02344443684671549
                ],
                [
                    -0.01833882659025987,
                    0.037811696961354405,
                    -0.07066489825284898,
                    0.07932205234950707,
                    -0.08959908364165324
                ],
                [
                    0.01070533876802926,
                    -0.05367168992724028,
                    -0.05327249180600096,
                    0.0796837042214622,
                    -0.01609427158774932
                ],
                [
                    -0.09884545545790438,
                    0.044730626654228445,
                    0.03347488374839982,
                    -0.06722630324603761,
                    0.09600283165703408
                ],
                [
                    0.05010681824817956,
                    0.05316108016092074,
                    -0.04820875518533241,
                    0.06492795168988075,
                    -0.0011549079231974791
                ],
                [
                    0.05089512728911214,
                    0.09273351723214798,
                    -0.031647764481995355,
                    0.04189235610648692,
                    -0.0863327094972467
                ],
                [
                    -0.03485820887310627,
                    0.0812308985583815,
                    -0.09136344387668682,
                    0.06429460828243308,
                    -0.07530455187733148
                ],
                [
                    0.03897895377932808,
                    0.006635397231852225,
                    0.011638783746343995,
                    0.014992413920458515,
                    -0.003696917262331234
                ],
                [
                    -0.0071513517354702795,
                    -0.07547438567223219,
                    -0.06723702435964829,
                    0.09003363371992884,
                    -0.07030744375955454
                ],
                [
                    -0.01785898454451509,
                    0.011040403010194266,
                    0.022341528678480185,
                    -0.06218674255152712,
                    0.08554667600598367
                ],
                [
                    0.07915368972719104,
                    0.038934207466011485,
                    -0.06151413774546093,
                    -0.04069757089492037,
                    -0.05170848126734955
                ]
            ],
            "U_c": [
                [
                    -0.036597879655917674,
                    -0.08495091373292096,
                    0.06481849663276476,
                    -0.04738535786068428,
                    -0.0031661349014730834
                ],
                [
                    0.01649155106973066,
                    -0.08153480292371854,
                    -0.031049519240574953,
                    0.08217722915797193,
                    -0.0370599612673951
                ],
                [
                    -0.0796641482447144,
                    -0.04449237109112669,
                    -0.03427711908011042,
                    -0.038276308572106114,
                    -0.06409808163930075
                ],
                [
                    -0.0904898805761874,
                    0.0701002166350773,
                    0.007576885345720186,
                    -0.09710759840984923,
                    -0.05124610537494843
                ],
                [
                    0.08044382296888326,
                    -0.011430154982649722,
                    0.07753969976301243,
                    -0.06497227329230129,
                    -0.07883252797550443
                ],
                [
                    0.030006448831617294,
                    -0.09221957968346704,
                    0.030354933106594584,
                    -0.05181871142007184,
                    0.015413834987640285
                ],
                [
                    -0.03652145902460815,
                    -0.052402338794963435,
                    0.008985732282840742,
                    -0.06508137904716356,
                    -0.06075792209383882
                ],
                [
                    0.017741597108938124,
                    0.06883477664053368,
                    0.04062136872829791,
                    0.08094664542717221,
                    0.028697870820631157
                ],
                [
                    0.008407620394016147,
                    -0.05474814649403004,
                    -0.08132946094158051,
                    -0.03453395158755699,
                    0.07845076681378205
                ],
                [
                    -0.045099056688522814,
                    -0.010658639381161251,
                    0.05217456237302642,
                    0.04465327168092264,
                    -0.01014163684829892
                ],
                [
                    0.09136540259172499,
                    0.023911281005240648,
                    -0.09026934871448654,
                    -0.055452240505870144,
                    0.026868475807517878
                ],
                [
                    0.008790764044005762,
                    -0.06258484794187376,
                    0.003316096886083231,
                    0.09730177237781322,
                    0.029317598759231678
                ],
                [
                    0.02058288047713719,
                    -0.08509457462284796,
                    0.015872860501932994,
                    0.058265404068375264,
                    0.07285678585825549
                ],
                [
                    0.051175834943749804,
                    0.03633647503717687,
                    0.07447494334584248,
                    0.02364917394156454,
                    -0.05937138345776749
                ],
                [
                    0.0952012038110176,
                    -0.022891074067045516,
                    0.03497543896843698,
                    0.042716926460723205,
                    0.006314059891146285
                ],
                [
                    0.08589288631654686,
                    0.09023973317208676,
                    -0.011006908999319843,
                    -0.051078664214438185,
                    0.08665603209938524
                ],
                [
                    -0.03579003430727425,
                    0.08500721612146818,
                    -0.06474986896319572,
                    -0.0692786227988236,
                    0.003093576330222847
                ],
                [
                    0.01694804611423171,
                    -0.04464385731654226,
                    -0.009682581851527173,
                    0.04845179505389117,
                    -0.07671843355349084
                ],
                [
                    0.09102077361899562,
                    0.09515255548285032,
                    0.056529378960532874,
                    -0.09799739679735589,
                    -0.07435595349162587
                ],
                [
                    -0.024704569372579678,
                    -0.09977789101800112,
                    -0.013069826570028044,
                    -0.0371844968146041,
                    0.05253695537835219
                ],
                [
                    -0.024517675862868994,
                    -0.045934866677244515,
                    -0.002541262112750209,
                    -0.08612220274942578,
                    0.011742097358869642
                ],
                [
                    -0.069624979185717,
                    0.08854949932159129,
                    0.05680959431535684,
                    0.0383314501908012,
                    0.03891696496669286
                ],
                [
                    0.04362744008296069,
                    -0.03830438681033497,
                    -0.060153785694941814,
                    0.08322571941650703,
                    -0.018584652056612926
                ],
                [
                    -0.051575485152829725,
                    -0.015992807145585864,
                    -0.021046675094349522,
                    -0.0325810630241453,
                    0.04982925454827663
                ],
                [
                    0.09377338723672822,
                    -0.000559483402284644,
                    0.059577756409550056,
                    -0.0012796572570627609,
                    -0.022364662567284557
                ],
                [
                    0.01854985528920159,
                    -0.06620773464343586,
                    0.08547481271359836,
                    0.07188092848110117,
                    0.02323367476836502
                ],
                [
                    0.07623667708056601,
                    -0.01081618659782746,
                    0.07026064204561903,
                    -0.009096558808586707,
                    -0.010962700994369735
                ],
                [
                    0.059264757353385725,
                    0.07438590554872791,
                    -0.06768755706530556,
                    -0.04799825933616018,
                    0.02733614114130809
                ],
                [
                    0.0903326721836504,
                    -0.0011630430254868651,
                    0.005645599897417575,
                    0.02741502764385091,
                    -0.03678840068213338
                ],
                [
                    0.04399427742198969,
                    0.08316849683572217,
                    -0.07121254484263899,
                    -0.0938395275848267,
                    0.0295161173176387
                ],
                [
                    0.05124629672212214,
                    0.07039586014339652,
                    0.09500148944109142,
                    0.0022047331809488036,
                    0.06844658892564352
                ],
                [
                    0.018112783322847558,
                    -0.043015570928220885,
                    0.0728392325913767,
                    0.0066611212161536764,
                    -0.006525953663859796
                ],
                [
                    -0.028933546310883032,
                    0.04888938279478281,
                    -0.048807932389732495,
                    -0.014070096453713555,
                    -0.0844462413918
                ],
                [
                    -0.012231012143498554,
                    0.06881021010418663,
                    0.04604558422138277,
                    -0.059767086285126995,
                    0.021885139448935578
                ],
                [
                    -0.0669284433529506,
                    0.09782562740182309,
                    -0.0559125154070691,
                    0.040900057637198374,
                    0.038572329077253546
                ],
                [
                    -0.04948576014876052,
                    0.08327090565691815,
                    0.051991655570775765,
                    -0.07249508699508596,
                    -0.03049994180227944
                ],
                [
                    0.001949303468871122,
                    0.03503940638074306,
                    -0.014305745006532568,
                    0.021118363279405018,
                    -0.02383309304721102
                ],
                [
                    -0.021260396345699695,
                    -0.013592199527345118,
                    0.08383281265237559,
                    -0.08620937115334,
                    -0.006377398709266013
                ],
                [
                    0.032045570448598217,
                    -0.01147783030316929,
                    -0.026378859885224572,
                    -0.03858002875087201,
                    -0.07432665904324134
                ],
                [
                    -0.0637379545253253,
                    -0.09994287472717599,
                    -0.02266565047032001,
                    0.049637744676958875,
                    -0.000121693287353275
                ],
                [
                    0.032736655133449304,
                    0.014302617749605685,
                    -0.014642686436066678,
                    0.06564609246152942,
                    0.027098948566466864
                ],
                [
                    -0.003646282891548669,
                    0.08649546011275136,
                    -0.08739645460707664,
                    -0.0985423817463858,
                    -0.09307283440790957
                ],
                [
                    0.06839469523843865,
                    -0.06556611846051162,
                    -0.010568368263315354,
                    0.039519129336304304,
                    -0.038931290337139296
                ],
                [
                    0.09544116894813091,
                    -0.055449397947556725,
                    -0.08022337477617109,
                    0.0014847419836695908,
                    0.017977227859195134
                ],
                [
                    0.07697840196445005,
                    0.04732578888542147,
                    -0.06030466291024943,
                    0.011091723005158195,
                    -0.05186531479166459
                ],
                [
                    -0.025805101823567635,
                    0.0942064892008525,
                    -0.0353335617170357,
                    -0.017662500063767905,
                    -0.056097202952519104
                ],
                [
                    0.011794069815189268,
                    0.07120440880236889,
                    0.014548878977023906,
                    -0.003382257121165955,
                    -0.03351022819582015
                ],
                [
                    0.0046649021397144,
                    0.04239468133206495,
                    0.04683366055528744,
                    0.04593463721777707,
                    -0.08577683107267282
                ],
                [
                    0.04874721944150891,
                    0.07429881647964046,
                    0.08433481317571004,
                    0.07860848581441307,
                    0.052435760771885165
                ],
                [
                    -0.021457494044829217,
                    0.06314643851612732,
                    -0.02863940245146628,
                    -0.09238325295822619,
                    0.0006790244316727811
                ],
                [
                    -0.042365666974248685,
                    0.028099553447470595,
                    -0.06049118802138569,
                    0.07629425425727338,
                    -0.040678571303806525
                ],
                [
                    0.014818284070639322,
                    -0.09376190242604099,
                    0.05551975055034158,
                    -0.007212767213340122,
                    0.09919250379530758
                ],
                [
                    -0.03840560731459311,
                    -0.09650178222258886,
                    0.06813372591271526,
                    0.0808714086774055,
                    0.005871386224157504
                ],
                [
                    -0.001953361602805437,
                    0.026623084976879707,
                    -0.04047522448824559,
                    0.013669939132964593,
                    0.01921964610575786
                ],
                [
                    -0.0478843096914541,
                    -0.08662142862450382,
                    0.04930552586851858,
                    0.08469885639950983,
                    0.06343185716701763
                ],
                [
                    -0.0017726061816759398,
                    -0.08805107537745818,
                    0.08068266457411916,
                    -0.07476224250375503,
                    -0.017557095297748137
                ],
                [
                    -0.04238445702230525,
                    0.07270162539832499,
                    0.05724790304543673,
                    0.07420606347829671,
                    -0.03261168130527266
                ],
                [
                    -0.04996660964804629,
                    0.004357207093597326,
                    0.05212505477017482,
                    -0.08579352458676776,
                    0.05314448758258142
                ],
                [
                    0.00275917617630117,
                    0.03173353761448623,
                    -0.00877973507835097,
                    -0.006811825516651205,
                    0.07337887375993046
                ],
                [
                    0.08364857486454201,
                    -0.0713973176990659,
                    -0.08998324467888284,
                    0.08675223819231855,
                    0.04661758265753899
                ],
                [
                    -0.05877864511691671,
                    -0.017335680814259246,
                    -0.06613051553954567,
                    0.055521791365294206,
                    0.0792350138724314
                ],
                [
                    0.016311406607084255,
                    -0.0328480267994149,
                    0.03207390876367744,
                    0.04017073598136489,
                    0.06925548215111244
                ],
                [
                    0.07059878440212353,
                    -0.09546423858307716,
                    0.07896141824561201,
                    0.027745055120348885,
                    0.0230656885725697
                ],
                [
                    0.009193812762899234,
                    0.009644865853577156,
                    0.03364183637930109,
                    -0.046469875786478834,
                    0.07237357870994268
                ]
            ],
            "U_o": [
                [
                    -0.0010138785968232921,
                    0.03810068659217092,
                    0.017563029831543876,
                    0.0730316344704054,
                    -0.08411342636575188
                ],
                [
                    0.03160290803102752,
                    0.0534670245888907,
                    0.050213581644761196,
                    0.051985716890273564,
                    -0.09969340123150904
                ],
                [
                    0.04364604512219501,
                    0.03491591164294874,
                    -0.07172693637967875,
                    -0.023832464270207555,
                    -0.09675792134119499
                ],
                [
                    0.07030349467641593,
                    0.0026572594026628817,
                    0.01424814855191403,
                    -0.003570937147855724,
                    -0.09554384820657039
                ],
                [
                    0.03439162949715646,
                    0.07940766949244088,
                    0.027444583700860694,
                    -0.022279265188151355,
                    0.023969000426000586
                ],
                [
                    -0.05530934413216615,
                    -0.09718596996702476,
                    -0.09574112682009635,
                    0.05681666417384723,
                    -0.0368027397451036
                ],
                [
                    0.023317635340132672,
                    -0.08735427444561039,
                    -0.043154867274992896,
                    0.00771172376174103,
                    0.01611670348886003
                ],
                [
                    0.08916044346381707,
                    0.07941800490284268,
                    -0.07975518894453403,
                    -0.00970332957201614,
                    -0.04023743260696151
                ],
                [
                    0.038218998397828496,
                    -0.0596847730182962,
                    -0.003510729307734062,
                    0.07365896177274411,
                    0.045001559640630906
                ],
                [
                    -0.04619609959264986,
                    -0.025648043360446283,
                    0.024151515880612418,
                    -0.0936494898977883,
                    0.011798888504875094
                ],
                [
                    -0.03445149110960766,
                    0.023799615822911815,
                    0.0278061797171411,
                    0.006406866316423599,
                    -0.006765740639418105
                ],
                [
                    -0.027552665725499748,
                    -0.050333233078680276,
                    0.0983559862742401,
                    0.08135569251669846,
                    0.08844782695407175
                ],
                [
                    0.02437956830521264,
                    0.042019909962666024,
                    0.0021917331369647464,
                    0.06313058516485966,
                    0.05538645254185357
                ],
                [
                    0.07231885174445454,
                    0.07955047082872413,
                    0.004223332587385764,
                    0.02747820502965517,
                    -0.029918745205056486
                ],
                [
                    0.05925825538229577,
                    0.08975456615967353,
                    0.05162328122377775,
                    -0.01930819161159645,
                    -0.01777181281882876
                ],
                [
                    -0.03697811064752012,
                    -0.09246122549769104,
                    0.05701787930694751,
                    0.042058898038258956,
                    -0.004849450742257022
                ],
                [
                    0.01657753510493907,
                    -0.04351574452348431,
                    -0.08825825087174924,
                    0.028225840631243185,
                    -0.08667711153335134
                ],
                [
                    -0.09770474414472761,
                    0.03700046925486207,
                    0.05380716458043566,
                    0.08099619924502288,
                    -0.030031875567921973
                ],
                [
                    0.007010884147196994,
                    0.09087379997249392,
                    -0.019879920488419467,
                    -0.042503997956492096,
                    -0.0061819741444917534
                ],
                [
                    -0.01359293797897605,
                    -0.005873980805080459,
                    0.00886230934976584,
                    0.011390149497251634,
                    -0.07766051710079609
                ],
                [
                    -0.09823587011338296,
                    0.050839567214818304,
                    -0.08005328684738518,
                    0.002740008563901797,
                    0.010097054185064814
                ],
                [
                    0.07238027849389131,
                    0.04364478646994226,
                    -0.006117923812703485,
                    -0.04646075281199687,
                    0.021832844397839057
                ],
                [
                    0.07118032583965901,
                    0.05668975824388509,
                    0.03031385743436006,
                    0.07351628907689715,
                    0.0036974650405005253
                ],
                [
                    -0.03481281859417556,
                    0.0814821784480164,
                    0.07406066039475782,
                    -0.050371837519966836,
                    -0.05492210270715334
                ],
                [
                    0.02683877255905505,
                    0.006828798689449367,
                    -0.09442916763158918,
                    -0.07231363682447037,
                    -0.0542826246062617
                ],
                [
                    -0.008229734082874085,
                    -0.061304282216077866,
                    -0.0037652612551318577,
                    0.03449722212724247,
                    -0.026368276130884372
                ],
                [
                    -0.0031255591941475205,
                    -0.021544201102220863,
                    0.06074358866360777,
                    -0.00638925378854518,
                    0.0843326079619239
                ],
                [
                    0.060802686254102616,
                    0.014225925930325012,
                    -0.05452680728287665,
                    -0.041799495394024236,
                    -0.0260239487525624
                ],
                [
                    0.07765799671107305,
                    0.034774528941632424,
                    -0.02910017174030697,
                    0.042975714365789355,
                    0.03699503809138878
                ],
                [
                    -0.05912344855441845,
                    0.02597949459378046,
                    0.00445093641441654,
                    -0.08535189454043712,
                    0.07543842167362252
                ],
                [
                    0.05333828175889721,
                    -0.09094901960017963,
                    0.022455368548429222,
                    -0.08713383471346202,
                    -0.07173915115042462
                ],
                [
                    0.08372241922630415,
                    0.023917353085802784,
                    -0.04717453873865825,
                    -0.09084831042027651,
                    0.07495364673582104
                ],
                [
                    -0.0751608744169091,
                    -0.001792048464608942,
                    -0.04805550220934838,
                    -0.026245873557029856,
                    0.037611217800907704
                ],
                [
                    0.02728239834483224,
                    0.02109597978934923,
                    -0.04615046246457624,
                    0.07676202405260041,
                    -0.07926569103815113
                ],
                [
                    0.048269566167192336,
                    0.04707472434566473,
                    -0.028301795345306947,
                    0.05174795082258657,
                    -0.002722023778006122
                ],
                [
                    -0.06768140925004587,
                    0.023751013876364625,
                    0.005333616671371533,
                    -0.08428926881878354,
                    0.0029945947666902176
                ],
                [
                    0.0025300713079561277,
                    0.08431076729966558,
                    -0.023468223035135495,
                    0.09591854921496251,
                    0.004728824695968626
                ],
                [
                    -0.0869426076287721,
                    0.08925335465607408,
                    -0.001713946681567058,
                    0.05856787216679904,
                    -0.09385709994412267
                ],
                [
                    -0.010557008284133597,
                    -0.060205145615168924,
                    -0.04192642437959535,
                    0.0017806123311949974,
                    -0.03493006934769634
                ],
                [
                    -0.07485275828270117,
                    0.08461818198890976,
                    -0.007742239411912966,
                    -0.040796829633318724,
                    0.043444330262148806
                ],
                [
                    0.07676206615261263,
                    -0.08951187896572588,
                    0.09091545928295786,
                    0.05895083515566651,
                    0.01397324295648077
                ],
                [
                    0.02925095817451149,
                    0.06732049198942534,
                    -0.07093854891359655,
                    0.09654922424271338,
                    0.0016907516384651934
                ],
                [
                    -0.09863203089768345,
                    0.06178090754920791,
                    0.08037380804028915,
                    0.052303758928961844,
                    0.007148765221692411
                ],
                [
                    -0.07544855175113326,
                    -0.08409114018966027,
                    0.030073487212186126,
                    0.08038804745018319,
                    -0.061490271536543406
                ],
                [
                    -0.08367311121689745,
                    -0.07656145328015587,
                    0.01891226116849858,
                    0.050216316275355014,
                    0.03503107627610937
                ],
                [
                    0.056813190545860204,
                    -0.036353758141563254,
                    0.09239464232308431,
                    -0.09983404973027765,
                    -0.006839583077705203
                ],
                [
                    -0.06283692723538495,
                    0.018808964686978815,
                    -0.0717729570574305,
                    0.008305735714977058,
                    -0.028549927886193795
                ],
                [
                    0.07355360640391072,
                    0.09278931166273395,
                    0.028450306459880538,
                    -0.03445499104213856,
                    0.025071088682727408
                ],
                [
                    0.029567890169626757,
                    -0.09924702957425482,
                    0.09256270091625324,
                    -0.06142187591559081,
                    0.08932231676951381
                ],
                [
                    0.01953419488310522,
                    0.06399868655318762,
                    0.052370910284186126,
                    0.07739182177811171,
                    0.057141316413504284
                ],
                [
                    -0.05998353884958174,
                    0.07668794039468252,
                    0.02381529506368594,
                    0.07550376336593759,
                    -0.007889425588563715
                ],
                [
                    -0.04472664556418167,
                    -0.08537708755425272,
                    0.09851806952066669,
                    -0.010511060151870711,
                    -0.04221428431189592
                ],
                [
                    0.06802250522265492,
                    0.03776473266888547,
                    0.050560337320102566,
                    0.015724736980334365,
                    -0.04006245675579985
                ],
                [
                    0.0973558971208599,
                    0.03798762312343882,
                    -0.033893029214540314,
                    0.009303621266456608,
                    0.051935825617418455
                ],
                [
                    0.04245590734768641,
                    -0.09452940152847585,
                    -0.056715876316088924,
                    -0.056113714281992744,
                    0.010250932486838837
                ],
                [
                    0.03863261506003815,
                    0.0776354652098348,
                    0.060502037550537624,
                    -0.019600760725005786,
                    0.08287315819203776
                ],
                [
                    -0.06683027187480649,
                    -0.036160156190899295,
                    0.015656850644224753,
                    0.027405604303567224,
                    -0.07918349855270129
                ],
                [
                    -0.05611806572846907,
                    0.02189221549892009,
                    0.03863784461200384,
                    0.08428706008083826,
                    -0.030381828357464547
                ],
                [
                    -0.03615068687289165,
                    0.021893382240469328,
                    0.0019386354718898603,
                    -0.03512250185751971,
                    -0.03770694032087503
                ],
                [
                    -0.022806528987136667,
                    0.09177207973509288,
                    -0.059205992551762156,
                    0.031248628464831653,
                    0.024787972022353347
                ],
                [
                    0.020136694700831726,
                    -0.011036569357184957,
                    0.013768431097381795,
                    0.07240250833164501,
                    -0.05002443504961718
                ],
                [
                    -0.028484010192686673,
                    -0.0959097733061098,
                    0.05276907202833208,
                    -0.010293159185117064,
                    0.0491656127471442
                ],
                [
                    -0.0064253212874440194,
                    0.0021373892638910873,
                    0.03352330998631952,
                    -0.047421839163965834,
                    -0.09304186236159065
                ],
                [
                    0.011015500045402304,
                    -0.08759446734393486,
                    -0.04398809920518927,
                    0.01656069170595016,
                    -0.019395666355787156
                ]
            ],
            "W_f": [
                [
                    -0.09488156025734784,
                    0.0572952666527276,
                    -0.036338865884413755,
                    -0.021107421069412213,
                    -0.05477430170054842,
                    0.05310137161118589,
                    -0.029101277777735236,
                    0.08812087382294398,
                    0.07796755350077998,
                    0.08226014670182935,
                    0.05262062120699809,
                    -0.0563013521718265,
                    0.014708637866862452,
                    0.09835105724897449,
                    -0.0002397681101957039,
                    -0.027065355423409578,
                    0.04256114530841018,
                    -0.06454602659347213,
                    0.05499244810567161,
                    0.028831671675111872,
                    -0.05153268671483775,
                    0.012812602257964234,
                    0.015935891330174146,
                    -0.023637564537776413,
                    -0.05413030781614887,
                    -0.05833862106410666,
                    -0.060600147130992335,
                    -0.02988332938478222,
                    0.00859306507673785,
                    -0.08314083818624217,
                    0.08634494599692022,
                    0.0061561451439618555,
                    -0.06723331925815344,
                    -0.05210278531915411,
                    -0.08662528065654546,
                    0.07546766832945039,
                    0.07249026977983297,
                    0.004740794855804165,
                    -0.07931345792115095,
                    0.047356257758451474,
                    0.011271980833278517,
                    0.053996784917739474,
                    -0.011652280135031168,
                    -0.08213496415898998,
                    -0.08493510795813941,
                    -0.036606911033800316,
                    -0.08984539167337367,
                    0.047217742800120345,
                    -0.0071553344006086705,
                    -0.08580917360327799,
                    0.007420752294653776,
                    -0.07250981400537725,
                    -0.03086399744082924,
                    0.035773471493987574,
                    0.0791997363456693,
                    -0.0790044378581659,
                    -0.01943882396234429,
                    0.01848324662576344,
                    -0.053088790251493025,
                    -0.005250825498436984,
                    -0.06031581691962722,
                    -0.09534469393735197,
                    -0.047132510396723,
                    -0.05081164876776776
                ],
                [
                    -0.09153285666363392,
                    -0.03509772281856902,
                    0.0651974845981286,
                    -0.09680727486815861,
                    -0.02963807542905983,
                    -0.014826234592538269,
                    -0.0029738946071391718,
                    0.09711318247849024,
                    -0.00984604793374022,
                    0.08366853668778684,
                    -0.07544682689079661,
                    -0.012635904950496225,
                    0.09361285805663831,
                    -0.00557137696040777,
                    0.012374448941530836,
                    -0.07879121784674191,
                    -0.0810569776986585,
                    -0.07597345425026425,
                    -0.0023555405293388845,
                    0.03288544705550989,
                    -0.02625855190536197,
                    0.09439689796060032,
                    0.0966820389596492,
                    0.0035666068065496772,
                    -0.08257211138941177,
                    -0.030106032676500097,
                    0.07109765205585415,
                    -0.053008413864880935,
                    0.09959036707244268,
                    -0.07589080686786634,
                    -0.055838678554929036,
                    -0.08950860480684836,
                    -0.06252689378027053,
                    -0.08862181754917174,
                    0.0421561536980704,
                    -0.017260650887889306,
                    0.04434046999640662,
                    0.05236676363612729,
                    0.09760921053309946,
                    0.04869650426538348,
                    0.02204142313522768,
                    0.09642441793830846,
                    0.08068987168044778,
                    0.03566990018695975,
                    -0.037213237128007684,
                    0.018295180954958214,
                    0.07848670721722109,
                    0.08533821909117423,
                    -0.09387027588358743,
                    0.07632145727946522,
                    0.08454442737167166,
                    0.03171688352727873,
                    -0.01182879091361362,
                    -0.06374930034036218,
                    -0.0013091351053923007,
                    -0.0005863145824060112,
                    -0.05245098105393107,
                    -0.03284290562937971,
                    0.06409390590810951,
                    0.03505534751799442,
                    -0.015433626451666306,
                    -0.0017615715348261675,
                    0.09427260290193346,
                    0.06847781755755318
                ],
                [
                    -0.08681249298683597,
                    -0.029091920920793934,
                    0.01118068016630487,
                    0.09900611038021168,
                    0.05704170442303724,
                    -0.07860328569870322,
                    -0.019721172280747656,
                    0.02098647646036933,
                    0.04572829881630496,
                    0.0543069088598855,
                    0.04948667359080037,
                    0.05561130202348761,
                    0.09697489965666362,
                    -0.007309781172421004,
                    0.0860958934458092,
                    -0.08541693336799557,
                    -0.06746687069449293,
                    -0.07108693627398376,
                    -0.08977776079654086,
                    -0.002419924047642952,
                    -0.014100734758863087,
                    0.07831297067756858,
                    -0.08758971442807457,
                    -0.026771718567404124,
                    0.027492512362334853,
                    -0.07987022710619718,
                    0.09562032512771675,
                    0.08645681693968232,
                    0.07283784488095842,
                    -0.07912113205328004,
                    -0.034175504047591954,
                    0.0271149564688266,
                    -0.02695767779687315,
                    0.03216858459467305,
                    -0.06353513423169015,
                    -0.03814356331342566,
                    0.08418765458656344,
                    -0.024238650506597504,
                    -0.011294673281231815,
                    0.06634387136185442,
                    -0.01547521201021771,
                    -0.08442796762277281,
                    0.06385176943738727,
                    0.05796234671738168,
                    0.05940399442632991,
                    -0.04921611751779642,
                    0.08141627097687226,
                    0.06345381166225224,
                    0.06842892778959164,
                    -0.032219074794514246,
                    -0.009103251547735215,
                    0.02428701837831351,
                    0.05747498752504246,
                    -0.009420061247765133,
                    -0.03800036511415104,
                    0.060834579827308756,
                    -0.016026108741277724,
                    0.04108324085489086,
                    -0.08325227390952823,
                    -0.028114612151001396,
                    0.0919362822432954,
                    -0.045616986129465145,
                    0.014256100092938095,
                    0.0901112073052579
                ],
                [
                    -0.018777436351277578,
                    0.030453742660862072,
                    -0.05215318770463617,
                    -0.061691619253417734,
                    0.0594839510950077,
                    0.06896183220935459,
                    0.06759730135373165,
                    -0.09772193075009115,
                    -0.002169689223148974,
                    0.059830363963858414,
                    0.026378974140181824,
                    -0.041912787545720455,
                    -0.07620847019210907,
                    0.09656781555638427,
                    0.07194578668841023,
                    -0.09676769185853995,
                    0.08776548945961025,
                    -0.05539250776010998,
                    0.03252859696558448,
                    0.0679405465437384,
                    0.013780942541600429,
                    -0.05716034412009159,
                    0.06308980420688803,
                    -0.03578348714152031,
                    0.03889919766868386,
                    -0.06351540327430334,
                    0.023349864793025612,
                    -0.023594676133271486,
                    0.049124576482569654,
                    0.009372967546064804,
                    0.014760449249099762,
                    0.0742054928709182,
                    -0.0359452820960307,
                    -0.020792331129426134,
                    0.07171631941728528,
                    -0.04531187860806751,
                    0.056860255177842906,
                    -0.02654186678077184,
                    -0.07661943428137646,
                    -0.056360826297399386,
                    -0.09975554729896774,
                    0.00035355754950823216,
                    0.061571568337833865,
                    0.0244466752294942,
                    0.027064765098773026,
                    -0.0792866661375661,
                    -0.0395742171974151,
                    0.03506607323081754,
                    -0.02267929958328807,
                    0.04776601666799074,
                    0.0204347098134676,
                    -0.00484660931530625,
                    -0.008536459625973492,
                    -0.05274620239582,
                    -0.03731533319084133,
                    0.048662046841873856,
                    -0.05122928854206441,
                    0.01946770335221062,
                    0.029468578973219285,
                    -0.08968119577309548,
                    0.020124858098202348,
                    0.03848462324491689,
                    -0.05750210814075177,
                    0.04117753811369662
                ],
                [
                    0.0697846132184358,
                    -0.09679827870603863,
                    0.012147247974925102,
                    -0.04949215983572284,
                    0.016226367486908002,
                    0.057571218449053774,
                    -0.04956239500500157,
                    -0.0017259623803698833,
                    -0.08333909772748392,
                    0.08642371101081055,
                    0.026392516412949953,
                    -0.09399309244099961,
                    0.007352737760246808,
                    -0.01529097350305424,
                    -0.03665523026014968,
                    0.08002046651099481,
                    0.02806629282243918,
                    -0.038408045631802334,
                    -0.07374881382338805,
                    0.030786591881715775,
                    0.02200706965952186,
                    0.07243154902923703,
                    0.08913924704207768,
                    -0.041470045732921526,
                    0.025457206930174437,
                    -0.08074053725115815,
                    -0.019944334826848056,
                    -0.004441556482615372,
                    -0.03576752930303955,
                    0.06575369244428624,
                    0.0811447227919014,
                    0.013760888170414431,
                    0.0006595818130572528,
                    -0.02961770481728008,
                    0.05417022804287863,
                    0.004056326295336743,
                    0.010784128029033302,
                    -0.09719473387895497,
                    0.06976716601884463,
                    0.08206124808883837,
                    -0.07646872091457657,
                    -0.09997081317911455,
                    0.009571029223167639,
                    0.06437032783660604,
                    -0.0013579201196437297,
                    0.07946024876112852,
                    -0.07057223188607041,
                    -0.01190322035823408,
                    0.06431768755307242,
                    0.02495733897458481,
                    -0.01666116044714656,
                    0.039493982639739494,
                    0.08394576672570582,
                    0.055123508987394515,
                    0.06691394488617718,
                    0.08032398958053338,
                    0.07963448851918181,
                    -0.023127388506231174,
                    0.05462076342519267,
                    0.02325625500183999,
                    -0.0274904478288027,
                    0.0044877211957704555,
                    -0.07258161020722576,
                    0.02628623881218859
                ],
                [
                    0.06651560176128933,
                    -0.018194687499956386,
                    0.09678794673596214,
                    -0.044845028784029295,
                    0.014435663475034733,
                    -0.07669570582121595,
                    0.028627066733092968,
                    0.07305958685575002,
                    -0.09038625342452145,
                    -0.028142611271982188,
                    0.04145507027918743,
                    -0.002459444437086034,
                    0.018643519355161398,
                    0.06340266845898533,
                    0.05513817813148025,
                    -0.08732920540912983,
                    -0.04627186469262066,
                    0.033527522294518164,
                    0.097368428874621,
                    -0.07640406949894579,
                    -0.08518885096903646,
                    0.006952913637129377,
                    0.06494470227592374,
                    -0.04015108718610627,
                    -0.09526554499227713,
                    -0.029169077664133417,
                    0.013387125614789453,
                    0.07515228383216795,
                    0.0877707171159135,
                    -0.03192430725941391,
                    0.045291355644168065,
                    -0.03290770042987739,
                    -0.08948103143654795,
                    -0.01975647177612483,
                    -0.06772225374517904,
                    0.07211614685374775,
                    0.031759846781593916,
                    -0.007381434870175863,
                    0.03530556501818318,
                    -0.0017053183043600707,
                    0.06427685063102717,
                    -0.06814973821722761,
                    0.04572819204626506,
                    0.09312068966452465,
                    -0.052222784304147424,
                    0.06846097969474277,
                    0.011772449298015597,
                    -0.043223518097543503,
                    0.011409269170789283,
                    -0.014796946762845554,
                    -0.04248734767844369,
                    0.0042269469008400454,
                    -0.09791499236091171,
                    -0.09084872358635324,
                    0.03523791946120152,
                    0.041923387074882704,
                    0.04774566598551742,
                    0.015449763179389266,
                    0.006993415055703545,
                    -0.05854480615719984,
                    -0.0044586766838919266,
                    0.04017331134455966,
                    0.036868401001946285,
                    0.016999118251345282
                ],
                [
                    -0.06919638593783309,
                    0.04095481659337566,
                    0.09199541192951828,
                    0.04550586188232911,
                    0.0005630794668670225,
                    -0.04369926987950874,
                    0.07041506162661004,
                    0.0676084627379376,
                    0.0015136848544847537,
                    0.06220102643432564,
                    -0.08421164762614178,
                    -0.0020020258305406993,
                    0.09016745123065056,
                    -0.034528224045048385,
                    -0.01871779427667264,
                    0.06220403121685117,
                    -0.02448110851261358,
                    0.03210505250256086,
                    0.043448739987681444,
                    -0.011853293163686175,
                    0.07379236653132025,
                    -0.07633714492583249,
                    0.028525451077750265,
                    -0.057190812509176306,
                    -0.031851052647452936,
                    0.06570242053330491,
                    -0.0023302866066793105,
                    -0.03552497539711346,
                    -0.030051969788834777,
                    -0.04546677169955782,
                    -0.02110067143967749,
                    0.04089503125806191,
                    -0.03187615113525812,
                    0.03066258873153971,
                    -0.05425957101452861,
                    0.09478824861246622,
                    -0.011532955792948508,
                    -0.004479393153827105,
                    -0.007158101431475239,
                    -0.0020885025196899277,
                    0.009591769661129734,
                    0.029134431597068147,
                    0.09311984180156781,
                    0.00830726498221186,
                    0.05950459578000347,
                    -0.043329383449296204,
                    0.014016372104451814,
                    0.015096246049428653,
                    0.08325574417448595,
                    0.033698407040559396,
                    0.00860472793625895,
                    0.06422927295602343,
                    0.01677034809129363,
                    -0.004713379299836041,
                    0.016175042317834554,
                    -0.05013308505435541,
                    0.04663230128596099,
                    -0.0033227384256593554,
                    0.09503730270395337,
                    0.05804755267826456,
                    0.047366560103809977,
                    -0.017283229645514143,
                    -0.08721118064497951,
                    -0.04897719098162223
                ],
                [
                    0.0035815206159608426,
                    0.07936183184452322,
                    -0.07379590751809828,
                    -0.02653556934621162,
                    -0.057339821356087575,
                    -0.06411171535493006,
                    -0.09605676927462335,
                    -0.029642403135428697,
                    0.07433484499914185,
                    -0.04055569157456787,
                    -0.04842766384950055,
                    0.07435071794156296,
                    0.0931418236492741,
                    -0.03564959862045478,
                    -0.018794465263603444,
                    0.03222462991334734,
                    0.08520818957846253,
                    -0.050399774043454706,
                    -0.007545710308430298,
                    -0.014471716109647259,
                    0.07510844661792336,
                    0.03624474220248484,
                    -0.09272912950299042,
                    -0.04745317291536058,
                    -0.04570309613583401,
                    0.008076791013627993,
                    0.05632358335878649,
                    -0.039439666249622786,
                    0.046236737598621375,
                    0.04908934039126953,
                    -0.037686793029198334,
                    0.09067663327215891,
                    -0.06948779658023552,
                    -0.043941093856933656,
                    -0.011934051567053183,
                    0.08729585107791907,
                    -0.06961668827476407,
                    0.008193532173875907,
                    -0.06315275308905532,
                    0.08868099442622315,
                    -0.09555853885449439,
                    0.001827166162621352,
                    0.03562474832742362,
                    -0.03702823459821656,
                    0.04950163431196719,
                    -0.05950283332493909,
                    0.09208988626347424,
                    -0.07937367558084894,
                    -0.05405993671993246,
                    -0.05804048763826555,
                    -0.06704969359585554,
                    -0.03510497747214088,
                    0.036644303408719846,
                    -0.09178764860351377,
                    0.09492585400048766,
                    -0.05654081447867785,
                    0.02265233886633429,
                    -0.029302615511982544,
                    0.004194472735225996,
                    0.09541220071295518,
                    -0.024991429700685065,
                    -0.07100877895041945,
                    0.020620205211164033,
                    0.06235607997552557
                ],
                [
                    0.038487643225813176,
                    0.09486346116618426,
                    0.0020278194550891414,
                    -0.06181497331086066,
                    -0.07766501870455118,
                    0.06124086466569672,
                    0.07593731772457091,
                    -0.08427785146531426,
                    -0.03847684571016237,
                    0.06661751481491643,
                    -0.048304681835468544,
                    -0.08861128114995223,
                    0.047718791656427985,
                    0.04407400683519174,
                    -0.023126603769018296,
                    0.05629920204133235,
                    -0.06433538610281686,
                    -0.007194420420519565,
                    -0.08973316557929006,
                    0.054938029109804276,
                    0.05976605810501665,
                    0.07398046886854955,
                    0.08239288078361258,
                    0.03865310849449251,
                    0.058775012163042976,
                    0.013705068094527473,
                    0.05863877052716926,
                    0.0013533656665863703,
                    -0.011627543520652317,
                    0.00767675514077244,
                    -0.0024866725029776496,
                    0.08838558236511372,
                    0.06766024299548766,
                    0.0232160009813007,
                    -0.05289584465254063,
                    0.001549764126241282,
                    0.06299325403015155,
                    0.023553987002338087,
                    -0.03324641381697675,
                    0.04863027078801796,
                    0.02156192533163115,
                    -0.06026043649930993,
                    -0.003443816040429093,
                    0.011657600444604089,
                    0.046723387249514615,
                    -0.04876273861756495,
                    -0.07698754058912533,
                    -0.037753191430305914,
                    0.027881002744604366,
                    -0.06417646357343335,
                    0.08145603633366516,
                    -0.08699633119346456,
                    0.08928427599636378,
                    -0.005449926156070828,
                    0.059564828002202155,
                    0.026428129956588765,
                    0.0327703449331392,
                    0.03712080431583096,
                    -0.07999901123011187,
                    -0.07639429495802733,
                    -0.04933425055062884,
                    0.045138103263211486,
                    0.0279190595559949,
                    0.04840145847842545
                ],
                [
                    -0.03526862299003182,
                    -0.021244173001764757,
                    0.00448365274199305,
                    -0.01570986584443219,
                    0.04376246226499734,
                    0.07094236701716386,
                    0.07008267731514482,
                    -0.04648005755917324,
                    -0.06263494554927239,
                    0.0955861037725676,
                    -0.018604631911826843,
                    -0.021363049914522227,
                    0.057490763741924744,
                    -0.051820588006731554,
                    0.04064986867777261,
                    0.047913592798559314,
                    0.025695062459667285,
                    -0.07499574981858226,
                    0.0703458247512411,
                    -0.004397602714504512,
                    0.05230995592178156,
                    0.020214095190127845,
                    -0.048568621909237275,
                    0.0911865209023378,
                    0.0510539322895365,
                    0.07444665219337397,
                    -0.08327884786788747,
                    0.01949923399133373,
                    -0.06172681249729228,
                    -0.010108112039415152,
                    -0.07093284929464767,
                    -0.019988973206820606,
                    -0.06941749243531162,
                    0.040362691047813384,
                    -0.008073448333901735,
                    -0.0975649596937191,
                    -0.04477381799223099,
                    -0.08341052541467318,
                    -0.0381297337389112,
                    -0.07845517462550211,
                    -0.03423711909319105,
                    -0.006742424451124541,
                    -0.007880708461284792,
                    -0.004056107577012624,
                    0.06730690662168692,
                    0.0621430330966474,
                    -0.045482051245330425,
                    -0.07206057353495099,
                    0.058945488182941985,
                    -0.0011380827504675396,
                    -0.06955465639805147,
                    0.008423669678766644,
                    -0.05760774981872907,
                    0.08526925417825684,
                    -0.03027598120093915,
                    0.08450580104324615,
                    -0.004708602875942192,
                    9.85081838936086e-05,
                    -0.07566312555151965,
                    -0.0819338076649085,
                    0.02381948169231283,
                    -0.026208774076107912,
                    -0.0623553105341107,
                    -0.050124070521702514
                ],
                [
                    -0.01213891087725385,
                    -0.06905574255166909,
                    -0.05482120461233156,
                    -0.0028489793141320166,
                    -0.05583420107783548,
                    -0.0550459558785164,
                    -0.028012725911100867,
                    0.02658429945902572,
                    0.09901087364503713,
                    -0.0954746564242746,
                    -0.025504112535632475,
                    -0.020347983334092646,
                    -0.06347765833387757,
                    0.07078679498608054,
                    -0.005846549509706001,
                    0.01857236953083339,
                    -0.06751745508144762,
                    -0.0832496650769201,
                    0.04143816125741695,
                    0.0563088256694082,
                    0.005820498697712617,
                    -0.06019581692310055,
                    0.09528661869638161,
                    -0.0827435424773144,
                    0.05492578570742888,
                    -0.0015963788323091867,
                    -0.09978881478014537,
                    0.03483713868825873,
                    0.07714915850963706,
                    0.0860512588008106,
                    -0.03427289049829707,
                    -0.08258684887427553,
                    -0.015000245418647463,
                    -0.084091162236906,
                    -0.06049631829668445,
                    0.047787018109612306,
                    0.09770893269779363,
                    -0.0613599200939031,
                    -0.04216084857717757,
                    -0.0749833994567072,
                    -0.0005441435986752507,
                    0.07181890073489053,
                    0.049989192334202716,
                    0.021266034780452837,
                    -0.014261075269161606,
                    -0.024006591377471277,
                    -0.08717879361513665,
                    -0.0019425247984029338,
                    0.062442593956220364,
                    0.008500559711271527,
                    -0.06565568093120229,
                    -0.061595490184479545,
                    0.08715146126916272,
                    -0.039375892560213614,
                    0.06205014940600606,
                    0.09146872627654307,
                    -0.03278507407233962,
                    0.09583011282315433,
                    0.05843336790410774,
                    -0.08015491433915911,
                    0.07383458682281537,
                    -0.07804005977168627,
                    -0.034107721491636524,
                    0.06906998489511376
                ],
                [
                    0.009357460043520827,
                    -0.08456782125874136,
                    -0.08338275554148207,
                    -0.05461171361198976,
                    -0.00804738086585315,
                    -0.020971311669766027,
                    -0.03719843555329927,
                    0.08220624322843013,
                    0.015760750383076404,
                    0.028901382487003958,
                    0.08244137225221787,
                    0.014609421729358885,
                    -0.02473363448939947,
                    -0.02770988647848094,
                    -0.02433098912876084,
                    -0.01609472179630469,
                    0.0614440413164225,
                    -0.07265765112539076,
                    0.07563005293405226,
                    -0.09033589634623779,
                    -0.009090521398340235,
                    -0.00857973007092301,
                    0.08956252474306091,
                    -0.05281339605533673,
                    0.09161416581233145,
                    -0.07512302320800078,
                    -0.07771156612508064,
                    0.055493202674314505,
                    -0.08661521283180687,
                    -0.09220072806055171,
                    0.06177780561934343,
                    -0.09628786516070897,
                    0.09291361568506212,
                    -0.037261882118895716,
                    -0.05939097277431944,
                    -0.05950962657983159,
                    -0.04422648099385121,
                    -0.03466174506494533,
                    -0.05045756780638391,
                    0.07472977306352839,
                    -0.028785612700300445,
                    0.061627601530929416,
                    0.09726062159521472,
                    -0.041404411677480615,
                    0.05859943713326976,
                    0.0973722780609335,
                    0.04548048370578881,
                    -0.07497243766464315,
                    0.08588761188560155,
                    -0.06662100027954941,
                    -0.07012041622280903,
                    -0.04305622790660979,
                    0.06128733183532856,
                    -0.0706020968589163,
                    -0.0644217906287509,
                    -0.0977369863110152,
                    0.09340331851112318,
                    0.09207005208266866,
                    0.006752582906291971,
                    -0.0377665258327925,
                    0.05437858338264632,
                    -0.0842709876412307,
                    -0.010870478783064042,
                    0.06919815126176125
                ],
                [
                    0.08166980983475823,
                    0.0038259730303918274,
                    0.09697794586751166,
                    0.08681381712959663,
                    -0.09718476209242444,
                    -0.040977701135668704,
                    -0.09916094696192779,
                    0.032430433930952685,
                    -0.05564770095414269,
                    -0.09559048453864867,
                    -0.09406255502872991,
                    -0.07437849363958396,
                    -0.0036753620052233597,
                    -0.0010229402748682225,
                    -0.018691967175720994,
                    0.020236711817500752,
                    0.0866061172004794,
                    -0.07781871136406544,
                    -0.005335652264486269,
                    0.026975091181250722,
                    0.0774147272244893,
                    -0.06689829668162675,
                    -0.06498736638570289,
                    -0.06679681906726838,
                    -0.06629558806646037,
                    -0.08248160856104725,
                    0.03082399362867008,
                    0.09967819836313503,
                    -0.0941772578891105,
                    -0.07326234076588116,
                    0.0513832701202043,
                    0.07704223985953207,
                    0.09331091415680429,
                    -0.09521136028882674,
                    0.060033269530142166,
                    0.0223137645013783,
                    0.06069108811535922,
                    0.07613354525155736,
                    0.010388501138473916,
                    0.019416806642761488,
                    0.015767446112744766,
                    0.07144173435061552,
                    -0.009836640213697035,
                    -0.06995505902127153,
                    0.03828705111175077,
                    0.09817540229389864,
                    -0.08914056137614856,
                    -0.03197507401496363,
                    0.07029208314308832,
                    0.013369570524052188,
                    -0.0058280558006328365,
                    -0.04423671726045726,
                    -0.027851962182722036,
                    -0.06569803082212482,
                    -0.059342196315840326,
                    0.09861981026360148,
                    -0.07399305578417828,
                    -0.017691055434190073,
                    0.06736190920493375,
                    -0.06579916021731998,
                    0.03119937815494993,
                    0.04116143976254116,
                    0.08426591051518123,
                    0.09978822297283552
                ],
                [
                    -0.08139425888657525,
                    -0.08366986320269656,
                    -0.07348881458710703,
                    0.042189103448279974,
                    -0.023541788431615297,
                    -0.002647451799937306,
                    -0.09877423799410122,
                    -0.001902499632436383,
                    -0.01486963940653574,
                    0.04298350229220001,
                    -0.0866531262935161,
                    -0.07382968355345476,
                    -0.07536093708922681,
                    -0.009337615458963989,
                    0.07663618425893014,
                    0.08219811277807287,
                    0.09367213455970923,
                    0.012541274008222537,
                    -0.04111489928485541,
                    -0.06445902735029384,
                    0.05628072660858805,
                    0.08479142022965525,
                    0.07133841752327,
                    0.020012590429062473,
                    -0.04572717588616648,
                    -0.02795558896517596,
                    0.09264873338878488,
                    0.05628525085210095,
                    -0.07900486404527417,
                    0.040317686869518136,
                    -0.024972581442920028,
                    0.03392319357876266,
                    0.018042666604039814,
                    -0.07303954666381278,
                    -0.04592152844545632,
                    -0.018501496926008245,
                    0.012089212379453863,
                    -0.06419214172390027,
                    -0.035087320041611685,
                    -0.028953027082335027,
